digraph Tree {
node [shape=box, style="filled, rounded", color="black", fontname=helvetica] ;
edge [fontname=helvetica] ;
0 [label="X[2] <= 6.5\ngini = 0.47\nsamples = 80\nvalue = [49, 31]", fillcolor="#e581395e"] ;
1 [label="X[3] <= 77732.5\ngini = 0.35\nsamples = 36\nvalue = [28, 8]", fillcolor="#e58139b6"] ;
0 -> 1 [labeldistance=2.5, labelangle=45, headlabel="True"] ;
2 [label="X[3] <= 61655.5\ngini = 0.09\nsamples = 20\nvalue = [19, 1]", fillcolor="#e58139f2"] ;
1 -> 2 ;
3 [label="gini = 0.0\nsamples = 15\nvalue = [15, 0]", fillcolor="#e58139ff"] ;
2 -> 3 ;
4 [label="X[3] <= 65091.5\ngini = 0.32\nsamples = 5\nvalue = [4, 1]", fillcolor="#e58139bf"] ;
2 -> 4 ;
5 [label="gini = 0.0\nsamples = 1\nvalue = [0, 1]", fillcolor="#399de5ff"] ;
4 -> 5 ;
6 [label="gini = 0.0\nsamples = 4\nvalue = [4, 0]", fillcolor="#e58139ff"] ;
4 -> 6 ;
7 [label="X[1] <= 0.5\ngini = 0.49\nsamples = 16\nvalue = [9, 7]", fillcolor="#e5813939"] ;
1 -> 7 ;
8 [label="gini = 0.0\nsamples = 4\nvalue = [4, 0]", fillcolor="#e58139ff"] ;
7 -> 8 ;
9 [label="X[3] <= 98976.0\ngini = 0.49\nsamples = 12\nvalue = [5, 7]", fillcolor="#399de549"] ;
7 -> 9 ;
10 [label="gini = 0.0\nsamples = 4\nvalue = [0, 4]", fillcolor="#399de5ff"] ;
9 -> 10 ;
11 [label="X[0] <= 3.5\ngini = 0.47\nsamples = 8\nvalue = [5, 3]", fillcolor="#e5813966"] ;
9 -> 11 ;
12 [label="gini = 0.0\nsamples = 3\nvalue = [3, 0]", fillcolor="#e58139ff"] ;
11 -> 12 ;
13 [label="X[4] <= 1.0\ngini = 0.48\nsamples = 5\nvalue = [2, 3]", fillcolor="#399de555"] ;
11 -> 13 ;
14 [label="gini = 0.0\nsamples = 2\nvalue = [0, 2]", fillcolor="#399de5ff"] ;
13 -> 14 ;
15 [label="X[2] <= 4.5\ngini = 0.44\nsamples = 3\nvalue = [2, 1]", fillcolor="#e581397f"] ;
13 -> 15 ;
16 [label="gini = 0.0\nsamples = 1\nvalue = [1, 0]", fillcolor="#e58139ff"] ;
15 -> 16 ;
17 [label="X[3] <= 105869.5\ngini = 0.5\nsamples = 2\nvalue = [1, 1]", fillcolor="#e5813900"] ;
15 -> 17 ;
18 [label="gini = 0.0\nsamples = 1\nvalue = [1, 0]", fillcolor="#e58139ff"] ;
17 -> 18 ;
19 [label="gini = 0.0\nsamples = 1\nvalue = [0, 1]", fillcolor="#399de5ff"] ;
17 -> 19 ;
20 [label="X[0] <= 3.5\ngini = 0.5\nsamples = 44\nvalue = [21, 23]", fillcolor="#399de516"] ;
0 -> 20 [labeldistance=2.5, labelangle=-45, headlabel="False"] ;
21 [label="X[2] <= 7.5\ngini = 0.49\nsamples = 34\nvalue = [19, 15]", fillcolor="#e5813936"] ;
20 -> 21 ;
22 [label="X[3] <= 120739.5\ngini = 0.44\nsamples = 12\nvalue = [4, 8]", fillcolor="#399de57f"] ;
21 -> 22 ;
23 [label="X[3] <= 33464.5\ngini = 0.4\nsamples = 11\nvalue = [3, 8]", fillcolor="#399de59f"] ;
22 -> 23 ;
24 [label="gini = 0.0\nsamples = 3\nvalue = [0, 3]", fillcolor="#399de5ff"] ;
23 -> 24 ;
25 [label="X[3] <= 59075.0\ngini = 0.47\nsamples = 8\nvalue = [3, 5]", fillcolor="#399de566"] ;
23 -> 25 ;
26 [label="gini = 0.0\nsamples = 2\nvalue = [2, 0]", fillcolor="#e58139ff"] ;
25 -> 26 ;
27 [label="X[1] <= 0.5\ngini = 0.28\nsamples = 6\nvalue = [1, 5]", fillcolor="#399de5cc"] ;
25 -> 27 ;
28 [label="gini = 0.0\nsamples = 1\nvalue = [1, 0]", fillcolor="#e58139ff"] ;
27 -> 28 ;
29 [label="gini = 0.0\nsamples = 5\nvalue = [0, 5]", fillcolor="#399de5ff"] ;
27 -> 29 ;
30 [label="gini = 0.0\nsamples = 1\nvalue = [1, 0]", fillcolor="#e58139ff"] ;
22 -> 30 ;
31 [label="X[5] <= 0.5\ngini = 0.43\nsamples = 22\nvalue = [15, 7]", fillcolor="#e5813988"] ;
21 -> 31 ;
32 [label="X[2] <= 8.5\ngini = 0.39\nsamples = 19\nvalue = [14, 5]", fillcolor="#e58139a4"] ;
31 -> 32 ;
33 [label="X[3] <= 32419.5\ngini = 0.49\nsamples = 9\nvalue = [5, 4]", fillcolor="#e5813933"] ;
32 -> 33 ;
34 [label="gini = 0.0\nsamples = 1\nvalue = [0, 1]", fillcolor="#399de5ff"] ;
33 -> 34 ;
35 [label="X[1] <= 0.5\ngini = 0.47\nsamples = 8\nvalue = [5, 3]", fillcolor="#e5813966"] ;
33 -> 35 ;
36 [label="X[3] <= 79093.0\ngini = 0.48\nsamples = 5\nvalue = [2, 3]", fillcolor="#399de555"] ;
35 -> 36 ;
37 [label="X[4] <= 0.5\ngini = 0.44\nsamples = 3\nvalue = [2, 1]", fillcolor="#e581397f"] ;
36 -> 37 ;
38 [label="gini = 0.0\nsamples = 1\nvalue = [0, 1]", fillcolor="#399de5ff"] ;
37 -> 38 ;
39 [label="gini = 0.0\nsamples = 2\nvalue = [2, 0]", fillcolor="#e58139ff"] ;
37 -> 39 ;
40 [label="gini = 0.0\nsamples = 2\nvalue = [0, 2]", fillcolor="#399de5ff"] ;
36 -> 40 ;
41 [label="gini = 0.0\nsamples = 3\nvalue = [3, 0]", fillcolor="#e58139ff"] ;
35 -> 41 ;
42 [label="X[3] <= 89994.5\ngini = 0.18\nsamples = 10\nvalue = [9, 1]", fillcolor="#e58139e3"] ;
32 -> 42 ;
43 [label="gini = 0.0\nsamples = 7\nvalue = [7, 0]", fillcolor="#e58139ff"] ;
42 -> 43 ;
44 [label="X[0] <= 2.5\ngini = 0.44\nsamples = 3\nvalue = [2, 1]", fillcolor="#e581397f"] ;
42 -> 44 ;
45 [label="gini = 0.0\nsamples = 1\nvalue = [0, 1]", fillcolor="#399de5ff"] ;
44 -> 45 ;
46 [label="gini = 0.0\nsamples = 2\nvalue = [2, 0]", fillcolor="#e58139ff"] ;
44 -> 46 ;
47 [label="X[3] <= 75670.0\ngini = 0.44\nsamples = 3\nvalue = [1, 2]", fillcolor="#399de57f"] ;
31 -> 47 ;
48 [label="gini = 0.0\nsamples = 2\nvalue = [0, 2]", fillcolor="#399de5ff"] ;
47 -> 48 ;
49 [label="gini = 0.0\nsamples = 1\nvalue = [1, 0]", fillcolor="#e58139ff"] ;
47 -> 49 ;
50 [label="X[2] <= 9.5\ngini = 0.32\nsamples = 10\nvalue = [2, 8]", fillcolor="#399de5bf"] ;
20 -> 50 ;
51 [label="gini = 0.0\nsamples = 5\nvalue = [0, 5]", fillcolor="#399de5ff"] ;
50 -> 51 ;
52 [label="X[3] <= 85173.5\ngini = 0.48\nsamples = 5\nvalue = [2, 3]", fillcolor="#399de555"] ;
50 -> 52 ;
53 [label="gini = 0.0\nsamples = 2\nvalue = [2, 0]", fillcolor="#e58139ff"] ;
52 -> 53 ;
54 [label="gini = 0.0\nsamples = 3\nvalue = [0, 3]", fillcolor="#399de5ff"] ;
52 -> 54 ;
}